<?xml version="1.0"?>
<opencv_storage>
<cascade>
  <stageType>BOOST</stageType>
  <featureType>LBP</featureType>
  <height>48</height>
  <width>48</width>
  <stageParams>
    <boostType>GAB</boostType>
    <minHitRate>9.9500000476837158e-01</minHitRate>
    <maxFalseAlarm>5.0000000000000000e-01</maxFalseAlarm>
    <weightTrimRate>9.4999999999999996e-01</weightTrimRate>
    <maxDepth>1</maxDepth>
    <maxWeakCount>100</maxWeakCount></stageParams>
  <featureParams>
    <maxCatCount>256</maxCatCount>
    <featSize>1</featSize></featureParams>
  <stageNum>5</stageNum>
  <stages>
    <!-- stage 0 -->
    <_>
      <maxWeakCount>1</maxWeakCount>
      <stageThreshold>8.5906738042831421e-01</stageThreshold>
      <weakClassifiers>
        <_>
          <internalNodes>
            0 -1 3 -573441027 -552087503 1409355903 -585920485
            -888618759 -1424947192 -913665857 -137932301</internalNodes>
          <leafValues>
            -9.9358290433883667e-01 8.5906738042831421e-01</leafValues></_></weakClassifiers></_>
    <!-- stage 1 -->
    <_>
      <maxWeakCount>2</maxWeakCount>
      <stageThreshold>-9.7761631011962891e-02</stageThreshold>
      <weakClassifiers>
        <_>
          <internalNodes>
            0 -1 0 1156630527 -742796965 -2084189697 -2143073 -629109765
            -7436085 -338994433 -46113</internalNodes>
          <leafValues>
            -9.6322780847549438e-01 9.1530942916870117e-01</leafValues></_>
        <_>
          <internalNodes>
            0 -1 6 -176179469 -78264947 1381831103 -2912865 1896227635
            -876973087 -884499781 -4211713</internalNodes>
          <leafValues>
            -9.6295827627182007e-01 8.6546617746353149e-01</leafValues></_></weakClassifiers></_>
    <!-- stage 2 -->
    <_>
      <maxWeakCount>2</maxWeakCount>
      <stageThreshold>-8.7349876761436462e-02</stageThreshold>
      <weakClassifiers>
        <_>
          <internalNodes>
            0 -1 4 -134873089 -711212645 -1990083617 -136710181
            -1199966785 -74866484 -646710785 -34743171</internalNodes>
          <leafValues>
            -9.5304161310195923e-01 8.2346832752227783e-01</leafValues></_>
        <_>
          <internalNodes>
            0 -1 8 1974468031 -1078242409 17355743 -6438419 1620048635
            -1111506789 -662595329 -35653377</internalNodes>
          <leafValues>
            -9.1081821918487549e-01 8.6935311555862427e-01</leafValues></_></weakClassifiers></_>
    <!-- stage 3 -->
    <_>
      <maxWeakCount>2</maxWeakCount>
      <stageThreshold>-3.6941688507795334e-02</stageThreshold>
      <weakClassifiers>
        <_>
          <internalNodes>
            0 -1 7 1361436159 1407156433 -720907809 -572505571 952805625
            -107444038 -1464955907 -73479473</internalNodes>
          <leafValues>
            -9.0361446142196655e-01 8.8495576381683350e-01</leafValues></_>
        <_>
          <internalNodes>
            0 -1 5 -540018753 -79848158 -653025825 -551566561 268499387
            -1164738150 -643269633 -4313121</internalNodes>
          <leafValues>
            -9.1090804338455200e-01 8.6667275428771973e-01</leafValues></_></weakClassifiers></_>
    <!-- stage 4 -->
    <_>
      <maxWeakCount>2</maxWeakCount>
      <stageThreshold>-1.4496250450611115e-01</stageThreshold>
      <weakClassifiers>
        <_>
          <internalNodes>
            0 -1 2 1975517151 -802702849 -635187777 -72379825
            -1044391205 -531922769 -201335979 -134480081</internalNodes>
          <leafValues>
            -9.4142258167266846e-01 8.4745764732360840e-01</leafValues></_>
        <_>
          <internalNodes>
            0 -1 1 -202901505 2006294655 -745092833 2145104843
            -988837379 -742027106 -808724047 -4587694</internalNodes>
          <leafValues>
            -9.5131671428680420e-01 7.9646009206771851e-01</leafValues></_></weakClassifiers></_></stages>
  <features>
    <_>
      <rect>
        10 34 6 2</rect></_>
    <_>
      <rect>
        13 42 4 2</rect></_>
    <_>
      <rect>
        14 35 3 4</rect></_>
    <_>
      <rect>
        14 35 4 3</rect></_>
    <_>
      <rect>
        14 37 3 2</rect></_>
    <_>
      <rect>
        15 36 5 1</rect></_>
    <_>
      <rect>
        17 29 4 3</rect></_>
    <_>
      <rect>
        19 4 5 1</rect></_>
    <_>
      <rect>
        22 28 4 3</rect></_></features></cascade>
</opencv_storage>
